5 48 0 4 4 20 384
48 4.0 292 67
-10.8144512177 -6.2262177467 0.2525322437 -11.8832321167 -21.9905319214 22.7971611023 -11.8205070496 9.3436985016 1.2161095142 -0.5656404495 -1.9418692589 -8.5418920517 9.3013248444 1.5353221893 -11.9627065659 7.3270511627 0.6795377731 -6.9680528641 -16.416267395 -4.0264501572 4.1460952759 -5.7391300201 16.8836116791 -17.0627613068 4.9081063271 -12.7002754211 -4.7818193436 9.103934288 -3.3897817135 3.2125475407 14.6802434921 14.5552072525 -5.5005912781 -3.8633072376 -3.657636404 -11.3988990784 4.2111086845 -12.3247308731 9.9946975708 3.3061289787 -8.2695198059 -0.567620039 0.7352979183 -6.9944963455 -3.1858844757 -2.3458526134 6.2245435715 3.100467205 -1.7140517235 9.2889661789 1.8286411762 -15.5512123108 -2.3011610508 5.3908929825 -16.993478775 0.6191575527 -15.7578039169 -10.741724968 -12.7160730362 -4.0888204575 -2.3472847939 -10.8143548965 -0.5337252617 -6.8282942772 2.2378735542 4.9334745407 -0.8636865616 
-10.27003479 -5.2645425797 1.4727127552 -10.8431138992 -17.3010883331 23.3809509277 -13.7532663345 9.0000066757 -2.7317421436 -6.333404541 -5.6179943085 -7.4027767181 1.4652051926 4.3556461334 -9.686794281 5.1876020432 4.9644827843 -7.0006303787 -11.7905864716 -4.4815745354 2.0189902782 -3.8965198994 15.9533014297 -14.5587396622 6.5541338921 -11.0725326538 1.703230381 6.5512719154 -1.0785720348 2.6248850822 14.598077774 11.5020799637 -4.7272634506 3.1073703766 -8.1802349091 -11.4475307465 0.4137451649 -14.0638780594 7.9044885635 6.3634595871 -14.1533088684 -4.2347826958 -0.1481058598 -5.1924681664 -6.5826759338 -2.6877865791 5.5571603775 -4.8072867393 0.8119223118 4.3169708252 3.0957314968 -17.6643638611 -0.2434821129 9.1495494843 -20.4898872375 1.7060542107 -14.8253135681 -14.8029470444 -9.5570659637 -4.346487999 -1.8385357857 -7.673122406 -1.9324040413 -6.3685417175 4.2024245262 6.8951230049 -0.5029623508 
-10.8360023499 -5.5966830254 3.1914596558 -9.8218107224 -19.158744812 21.4958438873 -13.1718254089 8.9610710144 -1.9746375084 -5.3932275772 -7.3032608032 -9.1413860321 3.1680407524 3.8574056625 -9.9622039795 6.1264710426 4.8620014191 -7.856751442 -10.221031189 -3.6659731865 1.4866278172 -5.3118481636 15.0445623398 -12.7652273178 7.3740129471 -12.0385332108 -0.1302857399 6.0801281929 -1.8372478485 3.1191239357 12.6113176346 12.8323078156 -6.571688652 1.4112927914 -7.0903391838 -11.5814962387 2.3096961975 -12.5374345779 7.0102314949 6.9753236771 -12.5229415894 -2.4437296391 1.2462823391 -5.9269347191 -6.2476663589 -1.0619523525 5.0128641129 -2.8908605576 -0.0859239101 4.9016389847 3.1990778446 -16.8422603607 -0.8378458023 7.5517392159 -19.5838985443 0.1088075638 -16.5779418945 -14.5132026672 -10.8451557159 -4.7126731873 -1.2695279121 -8.6468801498 -1.0160298347 -6.9107198715 5.5236196518 7.7480068207 -1.1281578541 
-10.5310497284 -6.9859466553 5.391579628 -10.3928451538 -19.7876605988 21.4448471069 -12.6959552765 8.8339176178 -2.2074761391 -3.6434516907 -7.8612174988 -11.0648365021 2.0081520081 3.5548112392 -10.2785797119 7.3068637848 4.7560167313 -7.3845763206 -8.6427030563 -0.1202125549 3.4863195419 -5.4861154556 16.2713546753 -15.4171695709 7.3563833237 -11.5292806625 -2.8889932632 6.0370903015 -3.2324872017 2.7251946926 11.1332807541 14.3251123428 -7.8724346161 1.892203331 -8.382399559 -10.7478942871 2.5583715439 -15.5580348969 7.7836670876 4.8875155449 -10.5795164108 -4.4446129799 2.7026429176 -8.5477170944 -3.5452485085 0.2245612144 4.458562851 -2.4082956314 0.4734449387 4.2491264343 3.6735141277 -15.7727508545 0.2453193665 7.1745080948 -18.580657959 2.6802077293 -14.1832332611 -16.135848999 -11.0978355408 -4.5382328033 -2.758364439 -9.8812351227 -3.0351610184 -6.4295840263 8.7390403748 8.5633974075 0.6830179691 
-11.8320331573 -3.6576747894 1.4426934719 -10.5268754959 -16.0040493011 23.4623184204 -14.8493003845 8.9312944412 -3.8933160305 -5.7101163864 -5.4124555588 -9.2317638397 2.3447713852 4.7751817703 -10.1478404999 4.2302064896 6.5930480957 -6.1711320877 -11.9944553375 -5.066450119 3.742067337 -2.3870270252 16.6807117462 -15.1142444611 5.0387964249 -10.854683876 0.5118675232 4.8209352493 -2.1808590889 4.3164138794 16.5288696289 13.2321681976 -5.2072253227 1.7998502254 -7.3137664795 -10.6632919312 -0.0187802315 -13.409444809 7.2667193413 7.8775086403 -13.2840366364 -5.9747066498 -1.4075689316 -5.263715744 -7.9235010147 -2.9395496845 7.0523295403 -3.1637992859 -0.2320802212 6.1744236946 2.8641214371 -15.7882471085 0.3731946945 7.3343877792 -18.6328620911 3.3210754395 -13.4790315628 -16.2338981628 -9.6853981018 -2.9876241684 -2.170753479 -8.5259819031 -1.8883771896 -5.1919183731 3.2490375042 6.1988887787 -1.072668314 
-12.2149209976 -6.3200192451 4.2713479996 -7.6421084404 -23.0906963348 20.3211593628 -13.2573671341 13.9566116333 1.0883805752 -6.1374320984 -3.0418543816 -7.5614089966 4.2568979263 -0.7950987816 -8.0545940399 9.6184015274 4.5814380646 -9.2251968384 -14.3022880554 -3.4414539337 5.5621967316 -4.6269497871 14.224656105 -11.8301668167 10.6772298813 -11.6344604492 -3.3498156071 9.8649625778 -1.4219582081 3.9557304382 10.4887638092 10.4582796097 -5.1832122803 1.9897005558 -9.3653745651 -7.9263095856 4.7399845123 -14.2350559235 9.8287563324 8.2393093109 -11.3659362793 3.9880139828 3.3183350563 -3.883810997 -8.6190958023 -3.7348546982 7.2998065948 -4.5049848557 -2.4860320091 9.7862510681 5.0602674484 -16.5711803436 -3.7902896404 10.2113609314 -20.6662063599 -2.1580531597 -15.2332706451 -11.2123632431 -14.5859279633 -3.0794017315 -2.3067138195 -8.4257850647 -4.5299758911 -8.6362705231 7.630235672 4.0545568466 -0.9341778755 
-2.2268927097 -7.6584453583 -2.9192101955 -6.3678388596 -17.3628063202 25.4907913208 -13.1801671982 3.5184085369 -3.6890130043 0.071751833 -7.831884861 -14.7180776596 9.6592559814 -4.0301103592 -11.1019859314 10.6505765915 -6.0221195221 -5.7732796669 -11.9791259766 -2.7722294331 6.510286808 -13.5055570602 20.6146659851 -29.7038249969 14.6838569641 -12.7366962433 -8.8334913254 15.7523145676 -0.1142063141 2.9944863319 10.9298229218 7.3953342438 -4.321439743 12.8245372772 4.3185925484 -5.7562074661 -2.4731593132 -6.5589570999 8.9202222824 1.4429972172 -2.4265487194 -3.7979445457 6.6316328049 -5.5817937851 -9.7853984833 -8.0241394043 10.2886304855 11.2415571213 -1.1125748158 -4.8471708298 -3.2052106857 -18.0213985443 7.5493240356 9.7180185318 -16.7592372894 1.5790793896 -14.9989271164 -11.6869926453 -8.8337984085 -3.557792902 -3.0620706081 -12.7520093918 -2.4670171738 -7.8657026291 7.1080026627 6.0920581818 -0.0222845078 
0.2438359261 -7.7628555298 0.9085617065 -8.8181848526 -22.1190776825 22.0921421051 -15.6543531418 -2.9202387333 0.8218626976 -3.1378953457 1.001527071 -12.1941385269 9.7292079926 -6.7439408302 -12.6833610535 9.3250112534 -1.6944231987 -5.0363340378 -5.570622921 -2.2016079426 4.7014713287 -11.0228996277 14.7017307281 -27.8179416656 10.0398645401 -14.8403205872 -12.6658439636 13.371471405 0.4600155354 0.3296146393 15.4021759033 9.5989170074 -5.190568924 14.1223688126 4.0176019669 -2.1645522118 -3.7927267551 -11.2823467255 12.5435905457 6.0429434776 -4.0778942108 -6.2327494621 5.4455003738 -2.5709483624 -7.7648043633 0.7651021481 4.1335029602 12.1675157547 3.2043843269 -5.4872570038 -7.1308550835 -14.2272834778 2.6370389462 3.7273511887 -18.5885925293 -3.5010688305 -14.6198587418 -13.6811237335 -9.3616056442 -4.5636863708 -2.3749399185 -10.8475933075 -0.9053037167 -6.3143200874 4.8113312721 2.5647594929 -4.3988647461 
-10.6082134247 -5.0320415497 1.1305873394 -10.1957139969 -21.548500061 24.1822776794 -11.3125400543 9.8850641251 3.1661996841 -0.4845995903 -1.6980454922 -9.300992012 8.8316745758 3.2142944336 -12.6109294891 8.4700775146 0.0355801582 -6.4261617661 -16.1384792328 -2.2752730846 2.938113451 -7.2296872139 18.5065536499 -17.1199226379 3.1015384197 -14.5708189011 -5.6131639481 7.1213159561 -2.3506896496 5.0674114227 15.8275947571 12.9664611816 -5.8791370392 -4.1859374046 -3.3068277836 -10.1535396576 4.723197937 -13.9763326645 8.2455034256 2.1194109917 -8.1181697845 -0.67248559 -0.7796838284 -8.5982122421 -4.945558548 -3.5325584412 8.0326709747 4.521361351 -0.4431591034 7.448220253 1.2874288559 -17.261505127 -2.5939686298 4.0266094208 -15.0482215881 2.4793016911 -14.4747600555 -12.3988037109 -11.5498609543 -2.6124277115 -0.4262185097 -12.1745281219 0.2474544048 -7.882130146 1.5274527073 3.7609341145 -0.2512953281 
-5.2255711555 -5.558924675 -7.0461044312 -9.4403619766 -13.9986982346 24.6893062592 -14.0197181702 5.2903814316 -2.7574100494 -0.1857309341 -6.5913505554 -16.8260116577 11.4774074554 -6.6678123474 -12.5414543152 9.0688858032 -7.4970140457 -6.5849308968 -9.923163414 -2.5423932076 4.5428094864 -13.6540431976 18.9791316986 -30.6356544495 15.2738523483 -10.5314693451 -7.5224552155 14.0745067596 0.0665311813 4.4119844437 10.7162857056 8.2514400482 -5.4150943756 15.0087594986 7.6414761543 -4.0009474754 -2.112695694 -6.8260250092 11.1467399597 -1.3220970631 -6.4242892265 -5.1901807785 9.9820833206 -4.4542837143 -9.4185400009 -6.044675827 7.7489843369 8.4481430054 -1.5037415028 -3.9736568928 -4.8739156723 -16.0939407349 7.0526528358 7.8753423691 -15.1895942688 4.2932758331 -16.0473613739 -12.9732589722 -9.110212326 -8.1770801544 -2.2970271111 -11.0218868256 -0.207650423 -5.6020326614 6.843006134 3.757140398 -0.1662580967 
-10.2140550613 -2.8325998783 1.5750350952 -6.390704155 -17.4464912415 21.3447628021 -12.4761219025 5.4805908203 -4.6870164871 -2.1460292339 -6.0521688461 -13.072552681 1.961761713 5.5408802032 -13.9005308151 8.1178007126 7.3660531044 -2.9815821648 -10.415971756 -4.1491708755 2.5130610466 -1.5699646473 16.9691295624 -12.4096794128 7.4311022758 -13.5389633179 -3.8257348537 0.8704817295 -5.7796654701 3.4279518127 11.7118654251 12.0671138763 -13.3083953857 -0.2015178204 -9.1984186172 -12.5044050217 0.2023284435 -13.8030052185 8.5133953094 4.9819068909 -11.4014759064 -3.2345049381 7.1755018234 -8.5181283951 -8.2973337173 -0.4505755901 4.2580575943 -2.5387897491 2.1945455074 7.1696209908 2.9513583183 -16.5022277832 -1.6263597012 6.1725969315 -16.9792861938 0.2667913437 -14.7914514542 -15.195394516 -15.2485160828 -6.5020618439 -1.9972679615 -10.8483734131 -4.4033665657 -8.1362333298 -0.645721674 12.1864728928 1.3915643692 
-4.9426403046 -7.1950936317 -2.2938263416 -6.9136676788 -16.0304870605 26.5039615631 -14.3293676376 4.0766649246 -5.9146852493 -1.6869702339 -7.7902364731 -16.8584213257 10.3374195099 -4.8278942108 -10.9274291992 8.9834403992 -5.333214283 -5.1222629547 -12.5091104507 -4.6944036484 3.0954005718 -12.8059616089 20.519613266 -29.4101219177 14.6085214615 -11.0514431 -6.2089967728 16.5545597076 1.2219090462 1.052826643 9.8967590332 8.2656021118 -6.2318496704 14.4352636337 7.9307765961 -5.2187614441 0.7225484848 -3.9359035492 9.1761398315 0.1838178635 -4.7832670212 -2.2990095615 6.9784822464 -5.1611046791 -7.703253746 -8.9785709381 9.6156053543 10.7901906967 -0.8650379181 -4.3524284363 -2.8225288391 -18.4544143677 4.5922613144 7.971244812 -17.5377616882 4.4538230896 -14.8389186859 -10.9678516388 -9.3503608704 -6.1402187347 -1.5587642193 -12.0836324692 -2.3653304577 -7.1721448898 8.0726032257 4.0366344452 -3.3817136288 
-11.2897157669 -7.2106480598 1.9649693966 -11.4997463226 -24.4940834045 23.31640625 -12.0843687057 8.0757417679 1.7774217129 -1.8577747345 -4.1385145187 -6.5358858109 6.0350165367 -2.4609031677 -11.3912906647 6.1575803757 3.0249502659 -6.7219562531 -14.7157535553 -6.1030273438 2.5029563904 -3.4745287895 14.3609361649 -18.173034668 4.4682159424 -12.9104785919 -0.2017276287 7.5808186531 -0.7297635078 3.5003118515 19.2056541443 13.1424055099 -4.6031517982 -2.5791740417 -5.979388237 -11.1015720367 2.8804664612 -8.4642438889 7.9855690002 5.0152378082 -11.777132988 -1.5769615173 0.3677229881 -7.463807106 -4.7367172241 -2.8265004158 3.6858565807 1.9037775993 -3.148737669 8.0076408386 2.1002237797 -17.4001369476 1.5121161938 7.2907218933 -17.3740882874 -0.9760196209 -17.8906555176 -10.2617692947 -13.8903846741 -4.5227069855 -1.9573788643 -10.0712432861 0.2550215721 -5.8040351868 4.6228890419 5.32076931 -2.6943235397 
-8.6586017609 -4.3278264999 3.2331340313 -4.8771233559 -18.1411190033 22.2337150574 -14.4638757706 5.3924541473 -3.6779134274 -0.4748177528 -5.7461838722 -11.4023780823 1.5441932678 6.7246017456 -14.7100143433 8.9085178375 8.7372722626 -2.7850267887 -9.4828214645 -2.8459501266 0.8500907421 -0.5920956135 17.4951667786 -12.9308891296 9.3746137619 -14.5797328949 -3.6083409786 1.0109138489 -5.9045763016 3.8833832741 10.6989574432 13.6128931046 -11.9759349823 1.4323377609 -9.0880699158 -10.7823619843 -0.778169632 -13.73204422 8.7069969177 3.8012187481 -11.0373659134 -1.6767342091 6.6828789711 -7.0608930588 -9.1827735901 1.2196025848 4.2347655296 -1.8628730774 2.3435437679 6.0830841064 3.9786939621 -17.9714431763 0.2405023575 4.6289587021 -18.8340435028 -0.5108921528 -15.3432359695 -15.5719070435 -15.9286804199 -6.88595438 -2.0638048649 -9.8348360062 -2.7513246536 -6.2954344749 -1.9783346653 11.7011175156 2.1661810875 
-11.4008846283 -2.7685611248 2.011936903 -8.2967386246 -15.8449392319 20.6281318665 -12.3330745697 3.7425835133 -5.8452453613 -3.1301913261 -7.7389259338 -12.4656715393 0.717287302 4.7736434937 -15.7156257629 6.5604577065 6.2302770615 -3.0482466221 -8.7381029129 -4.5421762466 3.7984013557 -2.4251756668 16.3767585754 -12.1009607315 7.8936009407 -12.1767616272 -5.3376951218 1.836255312 -5.1185245514 5.3772525787 11.1826839447 12.5745239258 -11.3956413269 -0.1622612476 -10.613114357 -13.0037155151 0.2430126667 -14.1584043503 9.7785434723 3.9764454365 -10.1825017929 -3.8473882675 7.2551555634 -8.5785980225 -8.5127658844 -0.5174880028 2.9977240562 -0.752669096 1.8315827847 6.5403299332 1.6984472275 -17.2039680481 0.0995070934 6.1336259842 -15.7379264832 0.4827013016 -16.428768158 -16.6348686218 -16.0319080353 -6.3080358505 -3.760477066 -12.6047210693 -2.5006220341 -10.101354599 -1.4443416595 11.187830925 3.2899549007 
-7.6304140091 -8.4723730087 2.8385078907 -8.8346233368 -18.5515918732 27.0421714783 -14.3426647186 11.2609405518 0.4970231056 -5.8507452011 -1.2446455956 -7.2853307724 6.7460021973 0.4780571461 -8.1463603973 10.0816192627 1.7609467506 -9.9703454971 -13.7525720596 -6.2443780899 3.3485825062 -5.6484231949 11.6816339493 -16.756729126 3.1165704727 -20.4487686157 -2.2969033718 5.4275407791 1.8481721878 2.7990903854 16.8221664429 13.1031732559 -2.1081395149 1.4298865795 -4.163672924 -12.4003639221 0.6874425411 -12.3687839508 7.0828866959 6.0416002274 -7.4040522575 -1.5884203911 0.6258699894 -5.4321904182 -6.5116701126 0.8378508091 3.74852705 0.8474786282 0.0692222118 5.5737962723 0.7974019051 -20.9145622253 -4.4652395248 7.0598735809 -19.5385284424 -3.6465921402 -17.3708705902 -13.8511543274 -12.100736618 -6.1384010315 -1.9092526436 -11.0751867294 -4.4458174706 -4.5972075462 4.3579416275 4.4340257645 -2.2980196476 
-4.0026254654 -8.5848426819 -4.2937374115 -6.0725250244 -19.5783901215 28.3689613342 -11.0847768784 1.7615802288 -4.0917854309 -0.3391544819 -12.5731363297 -12.2556095123 6.9024772644 -4.334900856 -13.3617801666 14.3474178314 -4.619333744 -3.7616169453 -12.6677970886 -4.7271184921 5.0654845238 -12.7684106827 19.6116161346 -28.5119476318 13.8737354279 -11.7389011383 -4.9013619423 16.459728241 -4.0785970688 2.203630209 12.6056079865 7.0158643723 -3.400898695 14.8193817139 1.5936214924 -2.9073905945 -1.5840733051 -4.3712520599 10.3880844116 0.631572485 0.2528915405 -2.3059997559 8.2950973511 -5.0547218323 -11.6813516617 -7.2447948456 9.1273040771 15.7772073746 -0.4045817852 -5.8590202332 -5.4414310455 -21.2073364258 11.2278051376 9.3592386246 -17.7739639282 -0.9687767029 -14.3482847214 -9.9511909485 -9.6837835312 -4.4476232529 -4.0149888992 -14.7463407516 -1.072663784 -8.3289737701 4.1924476624 7.4208726883 -0.1020920277 
-4.027200222 -9.4814863205 1.4517624378 -6.693406105 -20.4370231628 21.8392906189 -14.8218345642 -5.0611839294 -1.7998576164 -4.0951595306 -0.3145227432 -15.0542211533 11.3677921295 -7.1868095398 -10.3883266449 9.2757511139 0.212471962 -6.4163832664 -5.2582387924 -2.8422830105 7.1314587593 -15.2920389175 15.2469139099 -23.8359050751 7.3437070847 -9.8867788315 -14.9196147919 14.6639537811 -0.1737823486 -0.2988591194 12.7913780212 7.7842597961 -5.2888875008 14.0374717712 2.8068399429 -1.2970538139 -2.6009311676 -10.478222847 12.3322629929 2.4646239281 -3.0332705975 -6.6056537628 4.4945144653 -6.0757770538 -6.9176969528 -3.1632483006 4.1884293556 9.4603185654 4.1836061478 -4.5107269287 -4.7715935707 -9.4800443649 -0.8550474644 3.9218900204 -22.2826786041 -4.1906557083 -12.4729328156 -9.3751211166 -10.1639194489 -1.8327558041 0.6708877087 -10.715628624 -0.7250416279 -8.8265047073 7.7012014389 1.5217957497 -6.044793129 
-12.9561033249 -2.8159062862 6.5272607803 -12.1314496994 -18.6999568939 20.9789390564 -15.762752533 8.351568222 -0.2661409378 -3.8262858391 -5.467663765 -11.328453064 4.5196528435 0.930141449 -13.3616914749 3.7045845985 -1.4851346016 -6.4309597015 -7.4272198677 -2.0611393452 1.1744029522 -0.0740213394 13.8924789429 -11.9530906677 9.3928689957 -15.2605705261 5.2494630814 6.5581464767 0.9928891659 4.4425449371 11.611120224 10.3549346924 -2.9098553658 2.2120940685 -8.115445137 -12.9387083054 2.946819067 -11.8574647903 3.8793914318 8.1706047058 -11.2436943054 -5.5999212265 -1.8420493603 -5.6840286255 -6.0213265419 -0.3243813515 0.2831728458 -1.6667413712 0.574378252 6.7624130249 -0.9784846306 -15.8237342834 -0.7160625458 7.2636451721 -20.2589111328 3.34979105 -18.1955089569 -13.0222454071 -7.0729913712 -4.0716962814 -0.534209013 -10.830488205 -2.4066197872 -6.4151830673 2.2648715973 6.5290021896 -3.6082894802 
-8.7870330811 -4.9603338242 1.8901238441 -12.2666130066 -16.9344348907 21.4721031189 -12.2965841293 10.8903808594 -2.0391464233 -4.5552444458 -4.1153435707 -8.7612447739 1.63154459 5.2484254837 -10.4767341614 3.2408509254 3.2871108055 -8.2872676849 -13.4777069092 -5.3021211624 3.5987098217 -2.1690702438 16.1036987305 -16.5564880371 4.8842926025 -9.5708551407 1.0193593502 8.2151565552 -1.8625483513 1.7960824966 16.406332016 11.515879631 -3.8897242546 1.2298676968 -7.2044773102 -12.4537744522 2.3160693645 -13.715007782 9.5338554382 8.341632843 -14.7078905106 -5.2660441399 0.5109045506 -5.6862211227 -4.8255214691 -2.5451111794 5.4777202606 -5.8857421875 0.690819025 6.1135854721 1.4832849503 -16.7926635742 -1.1332051754 9.0598602295 -19.7059345245 3.2816405296 -13.4526023865 -14.324921608 -11.4467926025 -2.3859810829 -3.576157093 -6.2015304565 -0.4841644764 -4.8757152557 4.4857964516 5.0709204674 -0.7110431194 
-5.2637686729 -7.5692181587 1.8915486336 -8.8687877655 -19.6228427887 27.9079818726 -14.2674770355 11.0679340363 -0.9898629189 -5.249663353 -3.3946900368 -9.1404533386 7.8980970383 1.1907894611 -9.6474189758 9.8225126266 0.4915800095 -8.7888860703 -13.6320056915 -6.2731723785 3.4668354988 -5.9029340744 13.7858047485 -16.042388916 1.7995061874 -17.1089172363 -3.3927693367 6.8218708038 2.3086714745 3.6118564606 14.3001384735 12.3414516449 -2.4775688648 1.2587203979 -4.6085548401 -11.2394590378 -0.8280940056 -10.9742107391 6.6561365128 6.9534845352 -7.2600331306 -2.0598115921 1.3179154396 -4.9283418655 -6.100060463 1.4361422062 3.8389902115 1.2410728931 -0.9979953766 7.3068504333 4.0156335831 -17.9589157104 -4.3729066849 4.1640410423 -21.1628704071 -2.0168521404 -17.7461986542 -12.8940496445 -11.4674015045 -4.607213974 -1.1012032032 -12.1270093918 -2.9506039619 -3.8977782726 3.8202877045 4.4819784164 -1.4979536533 
-11.0284852982 -5.5179948807 0.3111391068 -10.7068805695 -25.1938438416 25.0518569946 -11.8521404266 10.2271385193 0.1786615849 -4.5489759445 -2.700312376 -7.9144563675 6.6054544449 -0.5611550808 -10.0786514282 6.0154032707 4.6842141151 -9.1904754639 -14.3724517822 -4.823764801 2.4803247452 -6.1111011505 17.2972545624 -15.1612224579 4.3160061836 -12.0320529938 -2.1382114887 6.8620319366 -0.8621203899 0.4953370094 17.3151702881 15.484834671 -3.0448336601 -3.6597826481 -4.1854906082 -12.678235054 2.9333076477 -9.7530927658 8.0847053528 4.340493679 -8.6150341034 -4.2584266663 2.2573714256 -5.7601938248 -3.4630012512 -2.6487300396 6.2345294952 2.9887857437 -1.3938364983 11.3150272369 3.7754776478 -20.6004104614 0.0531697273 6.3880724907 -16.5131759644 -3.3170878887 -17.8077316284 -13.6284122467 -12.8983001709 -6.7019968033 -2.4733452797 -8.7256736755 2.842689991 -7.4975132942 3.7973432541 8.286939621 -3.1258859634 
-3.1928803921 -9.310131073 1.3358037472 -6.3109550476 -18.5795783997 21.7157783508 -16.6015510559 -4.4154849052 -0.9796524048 -4.2167615891 -0.3473320007 -14.6077032089 9.3878211975 -6.222193718 -8.8747797012 8.7297840118 -1.6292643547 -6.5736508369 -6.2699718475 -1.5832004547 6.7842502594 -15.7333116531 14.7315921783 -25.5632991791 6.3507986069 -10.8118515015 -13.5862693787 14.854886055 -1.9860904217 0.4853682518 14.1592311859 7.4890613556 -6.443145752 12.7075519562 4.1919727325 -2.9707078934 -3.9794523716 -9.4962310791 11.4915142059 3.6113214493 -1.9694437981 -7.4727058411 3.8844347 -5.8915867805 -6.7279405594 -4.4880723953 5.4450507164 11.0552139282 5.8291521072 -3.0127189159 -3.1255004406 -10.5437355042 1.1431543827 3.750108242 -21.3804035187 -3.0586504936 -11.4716997147 -10.9769802094 -9.3353872299 -3.1349644661 -0.5259222984 -11.0486831665 0.0793542862 -9.0625228882 6.6973071098 3.331638813 -5.1917114258 
-10.6944351196 -3.8693525791 5.5124835968 -9.7339172363 -24.1782150269 25.6605892181 -15.1937255859 7.0000295639 -4.8194379807 -5.5488572121 -5.7464346886 -4.1764187813 7.6685094833 -2.8269069195 -16.1135025024 11.0863399506 9.1572465897 -5.2578134537 -10.2830753326 -5.2509870529 1.2185096741 -7.113404274 13.2535381317 -13.9881372452 8.374414444 -11.4860582352 -4.5945148468 1.5735414028 -4.4486899376 -0.4518296719 18.0392303467 9.4491176605 -0.5383906364 5.7361984253 -5.1670751572 -13.9315299988 -2.0331914425 -14.8062953949 6.9489173889 4.6602754593 -9.9498519897 -5.2425956726 0.7133455276 -11.3633527756 -3.3883247375 2.565890789 5.9318971634 -3.3003733158 2.8399851322 3.1669120789 -0.648570776 -18.4974937439 -5.4485692978 5.7483587265 -23.5464897156 -2.3383376598 -19.0575656891 -10.8468589783 -10.7196006775 -6.5875635147 2.1859240532 -10.0583381653 -0.9217681885 -7.1435594559 -1.0819034576 4.1250228882 -2.3870074749 
-14.5372333527 -7.4890909195 3.9230172634 -8.4371938705 -16.4900035858 18.2039813995 -14.9647569656 10.9669723511 -3.506074667 -6.0505027771 -5.7233390808 -9.9352684021 0.7580058575 3.4414093494 -8.3406219482 6.4818172455 5.8012390137 -6.0812358856 -7.9159550667 -5.5819005966 3.306589365 -6.1300458908 17.4391078949 -14.0384197235 5.4419813156 -9.5126981735 1.3304300308 5.8358273506 -2.8161890507 2.7402017117 14.9142408371 13.971118927 -2.866910696 2.3884131908 -9.1990432739 -8.5462026596 3.277169466 -14.5566530228 9.9242458344 6.8258829117 -10.5933084488 -1.2196576595 1.85967803 -5.5004019737 -5.372095108 0.5248651505 3.2476711273 -2.7228620052 1.0006091595 6.632019043 4.3323516846 -15.3785953522 -1.6430439949 5.3417472839 -16.5357513428 0.3416085243 -15.4231081009 -12.0508508682 -9.2897968292 -3.3898186684 -1.0379111767 -7.9551115036 -1.8623118401 -6.4775424004 6.9983110428 9.9576206207 1.2473115921 
-12.6728000641 -5.0266885757 -0.4421672821 -9.4965372086 -21.4148674011 21.3907279968 -13.1985111237 11.5411272049 -1.6411812305 -1.6905834675 -3.605070591 -7.2894287109 6.0266513824 -0.598862648 -11.0909967422 8.1984977722 0.637501955 -6.1438293457 -14.357998848 -5.823413372 3.1246914864 -4.8356842995 16.7292518616 -14.1708240509 4.2973446846 -15.1259241104 -4.5388059616 9.3197937012 -5.2170658112 1.1331655979 15.840763092 15.6062240601 -5.8931970596 -3.4070026875 -4.3419656754 -12.6552314758 3.5776453018 -12.2517871857 9.6815032959 3.9463579655 -9.4256267548 -2.0019667149 1.0905475616 -6.7881145477 -6.2645273209 -1.0079939365 5.1930427551 2.7437963486 -1.466547966 6.8027601242 3.0405580997 -16.8174438477 -1.5642716885 8.10978508 -17.9127635956 -1.2627756596 -14.4693346024 -11.8493509293 -13.0844955444 -6.2292499542 -2.080406189 -10.7187366486 2.7149837017 -7.524687767 0.6897301674 5.4797134399 1.1529915333 
-11.5928487778 -7.4073486328 4.2040576935 -9.3080539703 -21.5469017029 19.6434688568 -10.9684286118 9.1882266998 -4.0101947784 -9.3570775986 -5.8135099411 -10.5458431244 4.4209952354 5.1188049316 -12.9253559113 6.3528242111 7.3806142807 -7.0651817322 -10.2635917664 -3.6389696598 4.3133645058 -5.9263238907 12.8165197372 -13.8602714539 7.0784797668 -12.6422748566 1.1762063503 7.8619127274 0.8535571098 4.7776751518 13.7412166595 14.0095529556 -4.6457128525 -1.9221343994 -8.0645170212 -11.7584686279 2.361269474 -12.4167690277 6.9699783325 8.3057613373 -13.9039907455 -4.0097084045 3.0238232613 -5.6668787003 -8.1071128845 -2.2862462997 5.5903162956 -1.0928730965 3.0860950947 3.7988498211 3.5235569477 -16.0613002777 -4.2762355804 7.4831967354 -20.8923854828 -1.3363282681 -15.2753105164 -10.9863519669 -10.787232399 -3.7160909176 -1.0660803318 -5.2263469696 -3.3255937099 -5.6599588394 7.1770625114 8.323346138 -2.2626078129 
-10.7286434174 -1.1523191929 0.3016061783 -6.3454027176 -16.2713356018 21.9836349487 -13.7633047104 4.0195531845 -5.0048618317 -1.070389986 -5.4043741226 -14.353477478 0.6520910263 5.8035635948 -13.7957201004 6.5689935684 7.1559104919 -4.8790397644 -8.7436685562 -4.1203861237 2.8833591938 0.0494303703 16.5825271606 -12.5272026062 5.4434070587 -13.383518219 -4.6707134247 0.8324494362 -4.2446041107 5.0687017441 10.8552885056 10.302157402 -14.9195327759 1.1164565086 -8.8083610535 -12.5813331604 -0.0607857704 -13.2789993286 8.1003131866 5.6380739212 -12.4098110199 -2.4224712849 9.0448246002 -8.1739206314 -9.5802297592 -1.2936298847 3.6932661533 -4.0942969322 3.140185833 5.7722296715 4.3451452255 -18.2538261414 -0.9520306587 8.0958652496 -17.6527843475 -1.5777118206 -15.3036546707 -15.0086708069 -14.4233970642 -5.9377818108 -2.8801040649 -9.7577590942 -4.1394395828 -9.6792621613 -1.8439862728 13.4103660583 3.207750082 
-12.5678930283 -6.5766716003 4.7070951462 -8.6984024048 -17.8607959747 19.847776413 -13.831489563 10.6488332748 -3.3045172691 -7.0597734451 -5.5707511902 -11.100069046 1.6849844456 5.0957241058 -10.1548881531 8.0196361542 5.4546699524 -7.2441334724 -8.8273200989 -4.1051607132 2.606294632 -5.3425760269 16.1458511353 -13.2839412689 7.1974196434 -10.2128391266 0.723893404 4.2978210449 -3.7947802544 3.109411478 13.4117174149 13.2952461243 -4.7655706406 2.5558803082 -8.9534139633 -9.7689762115 2.9650909901 -13.6388778687 8.7635059357 7.3465738297 -11.3060073853 -1.3074560165 1.5649213791 -4.8017721176 -6.0905799866 0.3880767822 3.2236032486 -3.0778255463 1.6589007378 4.8288955688 2.4618532658 -14.8945732117 -1.8420889378 6.5154361725 -18.0796031952 -1.2374265194 -16.5991477966 -12.6157970428 -11.0736303329 -2.8057630062 -2.6425797939 -7.473338604 -1.8119361401 -7.7185020447 5.675555706 9.6019802094 0.1038377285 
-3.791633606 -10.6293239594 0.1009135246 -7.9666309357 -17.9715213776 22.498796463 -14.9440994263 2.8884882927 -6.3882708549 2.6379492283 -6.4287075996 -18.2467403412 8.3330097198 -4.0112504959 -11.2101726532 9.5220623016 -6.6055793762 -8.3619384766 -14.7823314667 -3.2191877365 7.3955125809 -15.7831840515 22.6106128693 -29.627822876 13.1507472992 -13.9325218201 -11.7448711395 12.6876850128 -1.0969939232 -0.459965229 8.8147058487 8.3493041992 -4.7052965164 13.640542984 6.5094451904 -7.9131770134 -3.1945455074 -5.2512917519 8.8435754776 -0.4349384308 -3.3799138069 -2.1965889931 4.6022195816 -5.341012001 -10.7978534698 -5.5912919044 8.991312027 11.0824995041 -0.2615756989 -7.2083969116 -1.4456827641 -19.9098320007 8.989109993 9.3764152527 -15.7981300354 1.80752635 -14.8017969131 -10.2658395767 -9.9533958435 -1.9028892517 -0.761089325 -14.5021276474 -4.1683478355 -7.8987679482 5.112326622 4.0618810654 0.0379617214 
-8.9264326096 -3.9355528355 4.9274897575 -10.9188022614 -17.3108234406 22.345741272 -14.4504537582 8.7342090607 -3.8165874481 -6.0294542313 -7.3360519409 -9.4452838898 2.4279110432 4.3014397621 -9.027215004 4.345041275 4.743871212 -9.4923295975 -11.9377117157 -4.8203735352 1.1916246414 -6.5580596924 13.6836233139 -14.1606454849 8.1919441223 -13.8783540726 -1.5586159229 7.4952378273 -2.1204099655 1.8952279091 11.1087036133 12.2237758636 -8.3796405792 3.3776009083 -5.9881310463 -11.38534832 0.9990992546 -12.3789777756 6.6488189697 5.8933591843 -11.5443344116 -1.0723555088 1.5110530853 -7.5053324699 -5.8671112061 0.2631175518 4.9277911186 -4.3709402084 -0.6973798275 6.3259515762 4.9810667038 -17.2986717224 -1.7724430561 7.7699594498 -21.138217926 -1.0401427746 -15.8549718857 -14.4534187317 -10.4652347565 -4.1554031372 0.2485258579 -7.6151828766 -0.282245636 -5.5971040726 4.49168396 9.4888553619 0.7898328304 
-8.4668550491 -4.8376789093 1.3414511681 -10.6604766846 -15.341091156 23.0618095398 -11.2924585342 11.8456907272 -1.5043570995 -6.4517569542 -3.2683842182 -10.2448730469 0.3157618046 7.1104836464 -11.5063247681 4.871445179 3.5945191383 -6.8812918663 -12.8896617889 -6.2285895348 1.8179299831 -0.4726729393 16.7412605286 -18.3685359955 6.3529930115 -10.002948761 1.2139430046 9.7558412552 -3.2379431725 1.0811169147 17.747838974 11.305393219 -5.7187314034 -0.0476057529 -5.4494423866 -13.7475967407 1.8543846607 -15.221572876 9.8164463043 6.3868408203 -14.8046417236 -6.2054071426 0.0846629143 -5.5849194527 -3.8250284195 -3.8517475128 5.4622268677 -7.7870473862 0.965444088 4.7039527893 2.5914831161 -15.2374305725 -1.3382401466 7.4773244858 -18.6062736511 3.1064326763 -13.3936729431 -14.2810401917 -10.2459831238 -1.0657143593 -3.296444416 -5.3353815079 -2.1193549633 -5.4320058823 4.2007446289 5.6207132339 0.7785904408 
-13.8560504913 -7.2248134613 2.4189925194 -9.5979270935 -22.9702243805 22.1846389771 -14.3133459091 15.0723705292 2.6393649578 -4.85247612 -3.4417603016 -7.4032297134 5.6206541061 -0.5824186802 -7.1588497162 11.2161197662 6.4735984802 -7.4709787369 -13.2900428772 -3.8391492367 6.5468444824 -3.6271104813 12.8204059601 -13.230512619 10.7960529327 -11.4362640381 -1.9627010822 9.6033124924 -1.7295379639 3.188457489 11.6443758011 8.5991840363 -4.1320438385 2.1157369614 -9.0226364136 -6.8153147697 5.5201821327 -12.4557723999 10.7174196243 9.2343330383 -10.7296743393 5.8559703827 5.0470881462 -3.6876564026 -8.5542869568 -3.2790350914 8.0739650726 -3.0103652477 -0.8127989769 7.9953999519 4.0649571419 -16.0695915222 -5.0136766434 10.1213846207 -21.0740776062 -3.6702268124 -13.2689504623 -13.0529918671 -15.0471506119 -1.811445713 -2.6695036888 -9.756778717 -3.7574520111 -9.5022115707 8.6603279114 3.4255878925 -2.5223081112 
-11.2866601944 -6.3607225418 1.079595089 -12.392496109 -23.8001174927 23.6633338928 -10.8931207657 9.6739873886 0.4022531509 -2.742282629 -4.0639300346 -8.0476036072 6.4792728424 -1.5469818115 -9.9884605408 7.6917934418 3.9647784233 -8.5727882385 -15.4434051514 -6.0674500465 3.5176692009 -4.9700431824 16.3030033112 -16.9809570312 3.7511389256 -12.5652484894 -1.7815907001 8.4315986633 -1.7121264935 1.8687617779 17.2555007935 13.7264022827 -4.3465843201 -2.4577255249 -5.214682579 -11.9136371613 4.2332744598 -8.9525852203 8.6495323181 5.6845002174 -10.1691188812 -3.3471033573 1.5053529739 -7.5635738373 -5.2627706528 -3.3132600784 4.4856562614 2.5228827 -2.1662142277 9.7316846848 3.6138532162 -18.8853359222 0.087416172 6.3813610077 -17.332818985 -2.0917189121 -17.3406505585 -11.895734787 -12.645116806 -5.676158905 -2.6463718414 -9.8151941299 1.165006876 -6.4700431824 3.699616909 7.1664853096 -2.258998394 
-11.0109291077 -8.6694278717 2.654504776 -11.5385417938 -25.4390125275 22.3041648865 -10.9036960602 4.7458996773 3.9621396065 -1.6289927959 -4.3787879944 -3.007791996 3.1890161037 -2.3595573902 -8.1834602356 8.4600372314 2.7557754517 -3.5412642956 -15.51404953 -4.4158153534 4.3442649841 -2.5233044624 14.4686336517 -17.7567234039 3.5473976135 -13.122549057 0.3847389221 8.0355243683 1.0776391029 2.3177056313 19.857831955 13.6965036392 -3.7680699825 -1.4947135448 -5.7936849594 -10.4942140579 3.1015005112 -8.0634851456 6.1579179764 6.4399328232 -12.5732707977 -1.1650338173 -1.2375700474 -8.8727931976 -5.4383540154 -1.5428757668 3.29454422 1.5308735371 -1.8335783482 8.3471107483 1.4893038273 -19.078130722 3.4279232025 6.5199012756 -17.1255340576 2.2840335369 -18.7456188202 -13.3823509216 -13.8060712814 -3.9851186275 -0.5610704422 -10.4956789017 0.8930547237 -4.171664238 4.6752152443 5.22762537 -4.703546524 
-11.9951887131 -6.8080143929 2.5969920158 -10.4220676422 -25.1806621552 21.6435451508 -10.2120161057 6.673453331 2.3086543083 -1.9299647808 -4.1531114578 -4.9193344116 4.776386261 -3.9087309837 -10.0079298019 7.3475866318 3.0012376308 -5.1262235641 -15.3669862747 -5.160577774 3.2537770271 -2.0897929668 16.3283958435 -17.3241767883 5.2144403458 -12.1705999374 -0.2689146996 7.2361516953 0.1585083008 2.4696426392 20.097240448 14.4107675552 -3.4227821827 -1.1495623589 -5.7023010254 -11.74081707 4.4897861481 -7.0572729111 8.1139287949 5.0071988106 -11.6073579788 -0.3975479603 -1.0287020206 -8.9407405853 -5.397986412 -1.5240483284 1.8890805244 2.5393457413 -2.6275222301 9.3222112656 0.7280943394 -18.6364555359 3.505010128 5.6790242195 -17.1014289856 0.4848134518 -19.7334899902 -11.7825012207 -13.6551027298 -4.8298091888 -2.4086284637 -11.9907331467 1.3321847916 -5.6572108269 3.1731891632 6.2383685112 -4.5112009048 
-1.127563715 -9.1280536652 0.8939688206 -7.666302681 -21.5815696716 23.5839099884 -14.6689176559 -6.3688526154 2.3123147488 -0.4008204937 2.1931877136 -13.7206506729 7.0526008606 -8.533949852 -13.2122392654 7.910197258 -1.8938136101 -6.6862201691 -6.5030217171 -1.2954177856 5.7626991272 -9.511932373 14.9121999741 -27.9926757812 9.0335874557 -13.6088485718 -11.0012378693 15.5855035782 -2.0765845776 -1.0688943863 14.7287597656 11.2125530243 -9.5037593842 14.3152151108 5.3023347855 -3.3326632977 -3.0551576614 -9.9977293015 10.5027523041 6.1411514282 -3.0657501221 -6.2504525185 7.8310203552 -4.7924084663 -4.1385278702 -4.166144371 3.7125287056 12.8801622391 2.8144681454 -2.6402084827 -3.9294657707 -14.0029497147 0.828797102 7.4474020004 -19.3351383209 -2.4445996284 -13.1313753128 -12.9403266907 -10.5176305771 -3.818901062 -0.4219388962 -9.982922554 -4.2396383286 -8.6368608475 7.473739624 1.7707264423 -4.5168638229 
-9.7917461395 -6.202600956 1.2876441479 -7.7905740738 -19.1905212402 28.0913677216 -12.8176593781 6.5729646683 0.8427574635 -4.1200532913 -2.660479784 -5.3729658127 9.8706474304 3.186953783 -13.1300144196 13.4850692749 -1.1103849411 -8.6025514603 -10.7990779877 -5.3693523407 6.6503534317 -6.1408038139 13.4230661392 -13.9386463165 2.0743000507 -15.6866531372 -5.527592659 2.3254241943 0.1017632484 5.3740854263 18.8771781921 13.7301139832 -5.6556692123 1.6233472824 -7.6113920212 -10.219751358 -0.6417620182 -10.0835151672 7.7085785866 10.5100765228 -5.3530611992 -2.6798472404 3.0766654015 -7.303504467 -1.8550634384 3.6514542103 4.5927839279 -0.8066875935 -1.503569603 5.594997406 3.3029386997 -19.6752796173 -3.4484901428 4.3933444023 -22.7004184723 -0.747107029 -14.1501178741 -11.5006341934 -14.0183963776 -6.3653211594 -3.7979946136 -11.4780235291 -4.6563615799 -3.837567091 5.6262845993 6.2783441544 -1.5586342812 
-10.7699708939 -6.660171032 -1.6320402622 -11.2318048477 -24.0912322998 26.7208690643 -12.3800449371 8.7928819656 1.1099181175 -2.7153325081 -0.7172234058 -9.592792511 7.5460042953 -0.2187261581 -10.5278978348 4.3604841232 3.2758076191 -8.1841411591 -15.2626304626 -3.7318360806 2.3667964935 -7.9906644821 15.8074159622 -14.8611412048 3.811383009 -12.8644123077 -0.9900605679 7.3715472221 -0.7416341305 0.8587839603 17.2223682404 17.3519134521 -3.8952758312 -3.1121377945 -2.6081049442 -11.3344230652 3.4582228661 -10.3645191193 9.7435207367 3.1818284988 -7.0608739853 -4.4083566666 2.5079922676 -4.5336446762 -2.0602309704 -4.1863760948 5.763671875 2.712739706 -2.3105115891 11.8454780579 2.9038295746 -20.862241745 1.3548388481 5.1024599075 -16.8935317993 -3.0031223297 -16.2982769012 -15.1846370697 -12.5227460861 -5.5839252472 -1.9929182529 -7.0080599785 4.4268255234 -5.5880489349 2.5694873333 7.9196453094 -4.8142771721 
-0.9381797314 -7.6154441833 1.6075303555 -10.3625411987 -23.3179454803 22.274312973 -17.2191677094 -2.8189640045 1.4067754745 -4.3166780472 2.465818882 -13.0052566528 9.0246658325 -6.0063877106 -11.4470281601 8.4763240814 -0.9263570309 -4.6809911728 -6.13540411 -4.0039682388 5.0484199524 -12.2087574005 14.2516765594 -29.0462379456 8.9356145859 -16.3468360901 -13.0852870941 11.6311883926 0.7262966633 0.4665837288 14.6205615997 9.8430938721 -7.0719556808 13.8994255066 2.8273632526 -0.66370368 -4.7703619003 -12.4787921906 12.5918006897 5.8753061295 -4.6900062561 -6.7291212082 7.185500145 -4.2003016472 -9.533624649 0.669863224 4.9452457428 13.2854356766 2.5883903503 -6.2244639397 -7.9315099716 -13.7253684998 3.5369646549 3.0830786228 -18.4284763336 -3.3236832619 -14.1009159088 -12.6974277496 -10.129781723 -3.4564092159 -1.7325053215 -12.1855068207 -2.4710702896 -5.0040111542 6.7134037018 2.7314436436 -2.5561256409 
0.0013985634 -6.375617981 1.9249417782 -9.9847517014 -22.1834621429 22.0906047821 -19.0815143585 -1.7304363251 0.3163049221 -3.321618557 3.690557003 -11.7151908875 8.3392801285 -6.2189817429 -9.4649343491 7.9183411598 -0.7698671818 -4.9686956406 -5.0593791008 -5.9948062897 6.3975672722 -11.1995296478 13.5142879486 -27.3814430237 7.2739868164 -16.8823814392 -11.3251838684 13.1275062561 -0.1197211742 2.0515627861 13.8907613754 11.269744873 -8.4663391113 13.205737114 2.2592060566 -1.2090024948 -3.7606413364 -10.6051101685 11.3777151108 5.4388246536 -4.3351554871 -7.2640719414 5.9435176849 -3.3255615234 -11.0032024384 1.232704401 6.5066156387 11.81939888 1.1121170521 -7.5968365669 -8.5042304993 -14.0777254105 5.0443148613 2.5241377354 -17.7847232819 -5.1493062973 -12.6186571121 -12.4074611664 -9.8367500305 -3.5754022598 -1.3209950924 -11.9417734146 -3.0628325939 -6.7558860779 6.9026145935 3.7119987011 -1.6436266899 
-12.0596675873 -4.4097623825 5.3659543991 -12.6030426025 -21.441532135 25.9361000061 -15.1479663849 6.0543622971 -1.8964846134 -2.8922691345 -6.6947417259 -4.2838020325 7.6119060516 2.1214032173 -13.4258203506 11.0547237396 3.5745487213 -9.6067810059 -14.612745285 -3.8600614071 4.6838645935 -5.7657446861 14.3886032104 -12.8158330917 6.3849382401 -17.5095100403 -0.782736063 4.311352253 -2.6230797768 0.8918530941 16.9535675049 10.8865756989 -4.600332737 0.5215570927 -2.1525304317 -14.3558731079 -2.5218136311 -13.6559286118 8.9209527969 6.9221439362 -11.3419561386 1.81138134 4.1749081612 -6.3760232925 -4.4755487442 2.078553915 7.1048579216 -2.0445320606 2.8301782608 6.1755046844 2.4149763584 -19.5910835266 -4.2611680031 4.477437973 -19.4089298248 -0.2470939159 -17.1054973602 -11.1332159042 -11.2752723694 -4.1819629669 -0.8682055473 -12.0406532288 -0.9509265423 -3.4834778309 1.5168392658 5.5522222519 0.425198555 
-11.063328743 -4.4219274521 3.9368839264 -9.6619472504 -20.1390323639 21.6787452698 -11.5253562927 8.7118120193 -2.2460768223 -8.1361293793 -5.488963604 -11.9005947113 2.9429256916 3.1458339691 -12.253783226 6.2226543427 3.8089780807 -10.0145215988 -12.4264736176 -6.5114002228 3.0931589603 -4.7410001755 13.6140232086 -13.0320291519 8.1677408218 -10.2664794922 -1.7355184555 5.7511129379 0.263459444 4.9637985229 11.4739112854 13.0195302963 -4.1709280014 0.0414872169 -5.7091217041 -10.9691524506 3.1720662117 -12.8522768021 6.6494150162 6.423707962 -11.7924480438 -3.5630671978 4.7721891403 -7.0401964188 -8.8676891327 -4.5882549286 4.0393824577 -3.3777873516 0.4346036911 4.568655014 1.9628973007 -18.0896530151 -3.1707756519 6.5731086731 -22.0330276489 -2.3235433102 -14.8615341187 -13.6305894852 -10.8557271957 -4.1604299545 -1.8208575249 -5.8087062836 -3.6436724663 -7.8706178665 7.4065179825 7.0971345901 -2.5104839802 
-1.4303300381 -9.1056127548 -0.6534881592 -7.0267076492 -17.3881225586 19.9121646881 -18.3599643707 -2.8527870178 0.6241807938 -2.4264893532 1.6170217991 -15.9141483307 9.0310544968 -7.4235367775 -8.1283836365 6.8274755478 -1.0188286304 -7.9069232941 -6.3021326065 -0.8896195889 6.2058787346 -16.995721817 16.4357185364 -26.2487792969 5.3014774323 -10.8558530807 -14.0002670288 13.5007762909 -3.4461181164 0.8297836781 12.4305105209 7.7646017075 -5.1676750183 12.5464782715 3.1293931007 -1.3074686527 -2.8530356884 -11.1921377182 12.9235515594 2.4515302181 -2.1857933998 -8.3855609894 4.4756236076 -6.5812397003 -7.6374959946 -5.5204954147 3.45195961 11.6718826294 3.8354558945 -2.2473917007 -1.6135764122 -8.6957988739 -0.5569288731 2.2087118626 -20.1502399445 -3.7663135529 -13.0541133881 -11.9635658264 -8.6777896881 -4.5244812965 1.0397269726 -11.9135150909 1.4726026058 -8.8375339508 8.5870685577 4.3572683334 -5.79047966 
-1.6870560646 -10.2684412003 2.8548576832 -6.2712039948 -21.424829483 21.9030990601 -16.4430847168 -5.2233157158 0.8631937504 -2.3905572891 0.3602590561 -14.1988592148 7.5013260841 -8.0330238342 -12.7688827515 8.1179275513 -3.3048